digraph Tree {
node [shape=box, style="filled, rounded", color="black", fontname=helvetica] ;
edge [fontname=helvetica] ;
0 [label="min_seg_size_forward <= 30.0\ngini = 0.5\nsamples = 63184\nvalue = [50163, 49837]\nclass = BENIGN", fillcolor="#e5813902"] ;
1 [label="Bwd_Packet_Length_Mean <= 44.74\ngini = 0.46\nsamples = 48581\nvalue = [27005, 49690]\nclass = Bot", fillcolor="#399de574"] ;
0 -> 1 [labeldistance=2.5, labelangle=45, headlabel="True"] ;
2 [label="Bwd_Header_Length <= 10.0\ngini = 0.3\nsamples = 38376\nvalue = [10953, 49690]\nclass = Bot", fillcolor="#399de5c7"] ;
1 -> 2 ;
3 [label="gini = 0.0\nsamples = 3020\nvalue = [4815, 0]\nclass = BENIGN", fillcolor="#e58139ff"] ;
2 -> 3 ;
4 [label="Init_Win_bytes_forward <= 234.5\ngini = 0.2\nsamples = 35356\nvalue = [6138, 49690]\nclass = Bot", fillcolor="#399de5e0"] ;
2 -> 4 ;
5 [label="gini = 0.0\nsamples = 1341\nvalue = [2128, 0]\nclass = BENIGN", fillcolor="#e58139ff"] ;
4 -> 5 ;
6 [label="Flow_Packets/s <= 5.74\ngini = 0.14\nsamples = 34015\nvalue = [4010, 49690]\nclass = Bot", fillcolor="#399de5ea"] ;
4 -> 6 ;
7 [label="gini = 0.43\nsamples = 1039\nvalue = [1149, 515]\nclass = BENIGN", fillcolor="#e581398d"] ;
6 -> 7 ;
8 [label="Total_Backward_Packets <= 2.5\ngini = 0.1\nsamples = 32976\nvalue = [2861, 49175]\nclass = Bot", fillcolor="#399de5f0"] ;
6 -> 8 ;
9 [label="Fwd_Packets/s <= 10968.96\ngini = 0.23\nsamples = 13072\nvalue = [2677, 18008]\nclass = Bot", fillcolor="#399de5d9"] ;
8 -> 9 ;
10 [label="gini = 0.5\nsamples = 1086\nvalue = [943, 829]\nclass = BENIGN", fillcolor="#e581391f"] ;
9 -> 10 ;
11 [label="Flow_IAT_Min <= 3.5\ngini = 0.17\nsamples = 11986\nvalue = [1734, 17179]\nclass = Bot", fillcolor="#399de5e5"] ;
9 -> 11 ;
12 [label="gini = 0.47\nsamples = 1032\nvalue = [603, 1033]\nclass = Bot", fillcolor="#399de56a"] ;
11 -> 12 ;
13 [label="gini = 0.12\nsamples = 10954\nvalue = [1131, 16146]\nclass = Bot", fillcolor="#399de5ed"] ;
11 -> 13 ;
14 [label="Bwd_IAT_Min <= 180.5\ngini = 0.01\nsamples = 19904\nvalue = [184, 31167]\nclass = Bot", fillcolor="#399de5fd"] ;
8 -> 14 ;
15 [label="gini = 0.13\nsamples = 1415\nvalue = [154, 1990]\nclass = Bot", fillcolor="#399de5eb"] ;
14 -> 15 ;
16 [label="Total_Length_of_Fwd_Packets <= 211.0\ngini = 0.0\nsamples = 18489\nvalue = [30, 29177]\nclass = Bot", fillcolor="#399de5ff"] ;
14 -> 16 ;
17 [label="Avg_Fwd_Segment_Size <= 27.25\ngini = 0.0\nsamples = 17372\nvalue = [18, 27436]\nclass = Bot", fillcolor="#399de5ff"] ;
16 -> 17 ;
18 [label="Fwd_IAT_Std <= 548.36\ngini = 0.0\nsamples = 7977\nvalue = [18, 12646]\nclass = Bot", fillcolor="#399de5ff"] ;
17 -> 18 ;
19 [label="gini = 0.01\nsamples = 1026\nvalue = [5, 1574]\nclass = Bot", fillcolor="#399de5fe"] ;
18 -> 19 ;
20 [label="Flow_IAT_Min <= 516.5\ngini = 0.0\nsamples = 6951\nvalue = [13, 11072]\nclass = Bot", fillcolor="#399de5ff"] ;
18 -> 20 ;
21 [label="Fwd_IAT_Total <= 1028944.0\ngini = 0.0\nsamples = 5348\nvalue = [7, 8509]\nclass = Bot", fillcolor="#399de5ff"] ;
20 -> 21 ;
22 [label="Flow_IAT_Max <= 499434.0\ngini = 0.0\nsamples = 4080\nvalue = [7, 6491]\nclass = Bot", fillcolor="#399de5ff"] ;
21 -> 22 ;
23 [label="gini = 0.0\nsamples = 1203\nvalue = [4, 1894]\nclass = Bot", fillcolor="#399de5fe"] ;
22 -> 23 ;
24 [label="Fwd_IAT_Std <= 3389.16\ngini = 0.0\nsamples = 2877\nvalue = [3, 4597]\nclass = Bot", fillcolor="#399de5ff"] ;
22 -> 24 ;
25 [label="gini = 0.0\nsamples = 1020\nvalue = [2, 1630]\nclass = Bot", fillcolor="#399de5ff"] ;
24 -> 25 ;
26 [label="gini = 0.0\nsamples = 1857\nvalue = [1, 2967]\nclass = Bot", fillcolor="#399de5ff"] ;
24 -> 26 ;
27 [label="gini = 0.0\nsamples = 1268\nvalue = [0, 2018]\nclass = Bot", fillcolor="#399de5ff"] ;
21 -> 27 ;
28 [label="gini = 0.0\nsamples = 1603\nvalue = [6, 2563]\nclass = Bot", fillcolor="#399de5fe"] ;
20 -> 28 ;
29 [label="gini = 0.0\nsamples = 9395\nvalue = [0, 14790]\nclass = Bot", fillcolor="#399de5ff"] ;
17 -> 29 ;
30 [label="gini = 0.01\nsamples = 1117\nvalue = [12, 1741]\nclass = Bot", fillcolor="#399de5fd"] ;
16 -> 30 ;
31 [label="gini = 0.0\nsamples = 10205\nvalue = [16052, 0]\nclass = BENIGN", fillcolor="#e58139ff"] ;
1 -> 31 ;
32 [label="Fwd_IAT_Std <= 4805958.75\ngini = 0.01\nsamples = 14603\nvalue = [23158, 147]\nclass = BENIGN", fillcolor="#e58139fd"] ;
0 -> 32 [labeldistance=2.5, labelangle=-45, headlabel="False"] ;
33 [label="Packet_Length_Mean <= 0.55\ngini = 0.0\nsamples = 13603\nvalue = [21654, 45]\nclass = BENIGN", fillcolor="#e58139fe"] ;
32 -> 33 ;
34 [label="Fwd_IAT_Total <= 0.5\ngini = 0.02\nsamples = 3106\nvalue = [4924, 45]\nclass = BENIGN", fillcolor="#e58139fd"] ;
33 -> 34 ;
35 [label="gini = 0.03\nsamples = 1886\nvalue = [2960, 45]\nclass = BENIGN", fillcolor="#e58139fb"] ;
34 -> 35 ;
36 [label="gini = 0.0\nsamples = 1220\nvalue = [1964, 0]\nclass = BENIGN", fillcolor="#e58139ff"] ;
34 -> 36 ;
37 [label="gini = 0.0\nsamples = 10497\nvalue = [16730, 0]\nclass = BENIGN", fillcolor="#e58139ff"] ;
33 -> 37 ;
38 [label="gini = 0.12\nsamples = 1000\nvalue = [1504, 102]\nclass = BENIGN", fillcolor="#e58139ee"] ;
32 -> 38 ;
}