digraph Tree {
node [shape=box, style="filled, rounded", color="black", fontname=helvetica] ;
edge [fontname=helvetica] ;
0 [label="Average_Packet_Size <= 14.12\ngini = 0.5\nsamples = 63220\nvalue = [50216, 49784]\nclass = BENIGN", fillcolor="#e5813902"] ;
1 [label="Subflow_Fwd_Bytes <= 13.0\ngini = 0.34\nsamples = 40388\nvalue = [14085, 49784]\nclass = FTP-Patator", fillcolor="#399de5b7"] ;
0 -> 1 [labeldistance=2.5, labelangle=45, headlabel="True"] ;
2 [label="Max_Packet_Length <= 0.5\ngini = 0.02\nsamples = 8405\nvalue = [13199, 113]\nclass = BENIGN", fillcolor="#e58139fd"] ;
1 -> 2 ;
3 [label="gini = 0.04\nsamples = 3990\nvalue = [6171, 113]\nclass = BENIGN", fillcolor="#e58139fa"] ;
2 -> 3 ;
4 [label="gini = 0.0\nsamples = 4415\nvalue = [7028, 0]\nclass = BENIGN", fillcolor="#e58139ff"] ;
2 -> 4 ;
5 [label="Flow_Bytes/s <= 29.48\ngini = 0.03\nsamples = 31983\nvalue = [886, 49671]\nclass = FTP-Patator", fillcolor="#399de5fa"] ;
1 -> 5 ;
6 [label="gini = 0.2\nsamples = 1003\nvalue = [181, 1394]\nclass = FTP-Patator", fillcolor="#399de5de"] ;
5 -> 6 ;
7 [label="Packet_Length_Variance <= 170.48\ngini = 0.03\nsamples = 30980\nvalue = [705, 48277]\nclass = FTP-Patator", fillcolor="#399de5fb"] ;
5 -> 7 ;
8 [label="Fwd_IAT_Min <= 2.5\ngini = 0.02\nsamples = 29976\nvalue = [380, 47035]\nclass = FTP-Patator", fillcolor="#399de5fd"] ;
7 -> 8 ;
9 [label="gini = 0.15\nsamples = 1277\nvalue = [168, 1890]\nclass = FTP-Patator", fillcolor="#399de5e8"] ;
8 -> 9 ;
10 [label="act_data_pkt_fwd <= 0.5\ngini = 0.01\nsamples = 28699\nvalue = [212, 45145]\nclass = FTP-Patator", fillcolor="#399de5fe"] ;
8 -> 10 ;
11 [label="Fwd_IAT_Min <= 47.5\ngini = 0.0\nsamples = 15013\nvalue = [2, 23795]\nclass = FTP-Patator", fillcolor="#399de5ff"] ;
10 -> 11 ;
12 [label="Fwd_IAT_Max <= 3.5\ngini = 0.0\nsamples = 4741\nvalue = [2, 7472]\nclass = FTP-Patator", fillcolor="#399de5ff"] ;
11 -> 12 ;
13 [label="gini = 0.0\nsamples = 2741\nvalue = [0, 4346]\nclass = FTP-Patator", fillcolor="#399de5ff"] ;
12 -> 13 ;
14 [label="gini = 0.0\nsamples = 2000\nvalue = [2, 3126]\nclass = FTP-Patator", fillcolor="#399de5ff"] ;
12 -> 14 ;
15 [label="gini = 0.0\nsamples = 10272\nvalue = [0, 16323]\nclass = FTP-Patator", fillcolor="#399de5ff"] ;
11 -> 15 ;
16 [label="Flow_Duration <= 8249531.5\ngini = 0.02\nsamples = 13686\nvalue = [210, 21350]\nclass = FTP-Patator", fillcolor="#399de5fc"] ;
10 -> 16 ;
17 [label="gini = 0.23\nsamples = 1004\nvalue = [210, 1352]\nclass = FTP-Patator", fillcolor="#399de5d7"] ;
16 -> 17 ;
18 [label="gini = 0.0\nsamples = 12682\nvalue = [0, 19998]\nclass = FTP-Patator", fillcolor="#399de5ff"] ;
16 -> 18 ;
19 [label="gini = 0.33\nsamples = 1004\nvalue = [325, 1242]\nclass = FTP-Patator", fillcolor="#399de5bc"] ;
7 -> 19 ;
20 [label="gini = 0.0\nsamples = 22832\nvalue = [36131, 0]\nclass = BENIGN", fillcolor="#e58139ff"] ;
0 -> 20 [labeldistance=2.5, labelangle=-45, headlabel="False"] ;
}