digraph Tree {
node [shape=box, style="filled, rounded", color="black", fontname=helvetica] ;
edge [fontname=helvetica] ;
0 [label="Subflow_Fwd_Bytes <= 3.0\ngini = 0.5\nsamples = 63311\nvalue = [49834, 50166]\nclass = PortScan", fillcolor="#399de502"] ;
1 [label="Bwd_Packet_Length_Mean <= 5.0\ngini = 0.2\nsamples = 35697\nvalue = [6465, 49998]\nclass = PortScan", fillcolor="#399de5de"] ;
0 -> 1 [labeldistance=2.5, labelangle=45, headlabel="True"] ;
2 [label="Fwd_IAT_Total <= 232.0\ngini = 0.05\nsamples = 4036\nvalue = [6234, 168]\nclass = BENIGN", fillcolor="#e58139f8"] ;
1 -> 2 ;
3 [label="gini = 0.0\nsamples = 3036\nvalue = [4782, 2]\nclass = BENIGN", fillcolor="#e58139ff"] ;
2 -> 3 ;
4 [label="gini = 0.18\nsamples = 1000\nvalue = [1452, 166]\nclass = BENIGN", fillcolor="#e58139e2"] ;
2 -> 4 ;
5 [label="Flow_Bytes/s <= 69265.37\ngini = 0.01\nsamples = 31661\nvalue = [231, 49830]\nclass = PortScan", fillcolor="#399de5fe"] ;
1 -> 5 ;
6 [label="gini = 0.18\nsamples = 1040\nvalue = [172, 1533]\nclass = PortScan", fillcolor="#399de5e2"] ;
5 -> 6 ;
7 [label="Init_Win_bytes_forward <= 19439.0\ngini = 0.0\nsamples = 30621\nvalue = [59, 48297]\nclass = PortScan", fillcolor="#399de5ff"] ;
5 -> 7 ;
8 [label="Flow_Bytes/s <= 244499.8\ngini = 0.0\nsamples = 15640\nvalue = [58, 24808]\nclass = PortScan", fillcolor="#399de5fe"] ;
7 -> 8 ;
9 [label="Flow_IAT_Mean <= 41.5\ngini = 0.0\nsamples = 12869\nvalue = [32, 20425]\nclass = PortScan", fillcolor="#399de5ff"] ;
8 -> 9 ;
10 [label="gini = 0.01\nsamples = 1170\nvalue = [11, 1864]\nclass = PortScan", fillcolor="#399de5fd"] ;
9 -> 10 ;
11 [label="Flow_IAT_Max <= 49.5\ngini = 0.0\nsamples = 11699\nvalue = [21, 18561]\nclass = PortScan", fillcolor="#399de5ff"] ;
9 -> 11 ;
12 [label="gini = 0.0\nsamples = 5220\nvalue = [0, 8320]\nclass = PortScan", fillcolor="#399de5ff"] ;
11 -> 12 ;
13 [label="Flow_Packets/s <= 36700.34\ngini = 0.0\nsamples = 6479\nvalue = [21, 10241]\nclass = PortScan", fillcolor="#399de5fe"] ;
11 -> 13 ;
14 [label="Flow_Packets/s <= 24243.31\ngini = 0.0\nsamples = 5181\nvalue = [11, 8272]\nclass = PortScan", fillcolor="#399de5ff"] ;
13 -> 14 ;
15 [label="gini = 0.0\nsamples = 1006\nvalue = [4, 1620]\nclass = PortScan", fillcolor="#399de5fe"] ;
14 -> 15 ;
16 [label="Flow_IAT_Min <= 70.5\ngini = 0.0\nsamples = 4175\nvalue = [7, 6652]\nclass = PortScan", fillcolor="#399de5ff"] ;
14 -> 16 ;
17 [label="Flow_IAT_Max <= 62.5\ngini = 0.0\nsamples = 2837\nvalue = [7, 4559]\nclass = PortScan", fillcolor="#399de5ff"] ;
16 -> 17 ;
18 [label="gini = 0.0\nsamples = 1605\nvalue = [3, 2598]\nclass = PortScan", fillcolor="#399de5ff"] ;
17 -> 18 ;
19 [label="gini = 0.0\nsamples = 1232\nvalue = [4, 1961]\nclass = PortScan", fillcolor="#399de5fe"] ;
17 -> 19 ;
20 [label="gini = 0.0\nsamples = 1338\nvalue = [0, 2093]\nclass = PortScan", fillcolor="#399de5ff"] ;
16 -> 20 ;
21 [label="gini = 0.01\nsamples = 1298\nvalue = [10, 1969]\nclass = PortScan", fillcolor="#399de5fe"] ;
13 -> 21 ;
22 [label="Flow_IAT_Max <= 21.5\ngini = 0.01\nsamples = 2771\nvalue = [26, 4383]\nclass = PortScan", fillcolor="#399de5fd"] ;
8 -> 22 ;
23 [label="gini = 0.01\nsamples = 1634\nvalue = [7, 2573]\nclass = PortScan", fillcolor="#399de5fe"] ;
22 -> 23 ;
24 [label="gini = 0.02\nsamples = 1137\nvalue = [19, 1810]\nclass = PortScan", fillcolor="#399de5fc"] ;
22 -> 24 ;
25 [label="Fwd_Packets/s <= 30536.13\ngini = 0.0\nsamples = 14981\nvalue = [1, 23489]\nclass = PortScan", fillcolor="#399de5ff"] ;
7 -> 25 ;
26 [label="gini = 0.0\nsamples = 12294\nvalue = [0, 19280]\nclass = PortScan", fillcolor="#399de5ff"] ;
25 -> 26 ;
27 [label="gini = 0.0\nsamples = 2687\nvalue = [1, 4209]\nclass = PortScan", fillcolor="#399de5ff"] ;
25 -> 27 ;
28 [label="Total_Length_of_Fwd_Packets <= 8.5\ngini = 0.01\nsamples = 27614\nvalue = [43369, 168]\nclass = BENIGN", fillcolor="#e58139fe"] ;
0 -> 28 [labeldistance=2.5, labelangle=-45, headlabel="False"] ;
29 [label="Init_Win_bytes_backward <= 253.5\ngini = 0.07\nsamples = 2477\nvalue = [3752, 136]\nclass = BENIGN", fillcolor="#e58139f6"] ;
28 -> 29 ;
30 [label="gini = 0.0\nsamples = 1440\nvalue = [2279, 0]\nclass = BENIGN", fillcolor="#e58139ff"] ;
29 -> 30 ;
31 [label="gini = 0.15\nsamples = 1037\nvalue = [1473, 136]\nclass = BENIGN", fillcolor="#e58139e7"] ;
29 -> 31 ;
32 [label="Bwd_Packet_Length_Max <= 2894.5\ngini = 0.0\nsamples = 25137\nvalue = [39617, 32]\nclass = BENIGN", fillcolor="#e58139ff"] ;
28 -> 32 ;
33 [label="Avg_Fwd_Segment_Size <= 33.62\ngini = 0.0\nsamples = 24031\nvalue = [37932, 12]\nclass = BENIGN", fillcolor="#e58139ff"] ;
32 -> 33 ;
34 [label="Subflow_Fwd_Packets <= 3.5\ngini = 0.0\nsamples = 6953\nvalue = [10973, 11]\nclass = BENIGN", fillcolor="#e58139ff"] ;
33 -> 34 ;
35 [label="gini = 0.0\nsamples = 5734\nvalue = [9066, 0]\nclass = BENIGN", fillcolor="#e58139ff"] ;
34 -> 35 ;
36 [label="gini = 0.01\nsamples = 1219\nvalue = [1907, 11]\nclass = BENIGN", fillcolor="#e58139fe"] ;
34 -> 36 ;
37 [label="Fwd_Packet_Length_Std <= 181.52\ngini = 0.0\nsamples = 17078\nvalue = [26959, 1]\nclass = BENIGN", fillcolor="#e58139ff"] ;
33 -> 37 ;
38 [label="gini = 0.0\nsamples = 14298\nvalue = [22569, 0]\nclass = BENIGN", fillcolor="#e58139ff"] ;
37 -> 38 ;
39 [label="Max_Packet_Length <= 1064.0\ngini = 0.0\nsamples = 2780\nvalue = [4390, 1]\nclass = BENIGN", fillcolor="#e58139ff"] ;
37 -> 39 ;
40 [label="gini = 0.0\nsamples = 1000\nvalue = [1617, 1]\nclass = BENIGN", fillcolor="#e58139ff"] ;
39 -> 40 ;
41 [label="gini = 0.0\nsamples = 1780\nvalue = [2773, 0]\nclass = BENIGN", fillcolor="#e58139ff"] ;
39 -> 41 ;
42 [label="gini = 0.02\nsamples = 1106\nvalue = [1685, 20]\nclass = BENIGN", fillcolor="#e58139fc"] ;
32 -> 42 ;
}